digraph Tree {
node [shape=box] ;
0 [label="Level <= 9.0\nmse = 88437109375.0\nsamples = 8\nvalue = 241875.0"] ;
1 [label="Level <= 6.5\nmse = 7233673469.388\nsamples = 7\nvalue = 133571.429"] ;
0 -> 1 [labeldistance=2.5, labelangle=45, headlabel="True"] ;
2 [label="Level <= 4.5\nmse = 1536000000.0\nsamples = 5\nvalue = 87000.0"] ;
1 -> 2 ;
3 [label="Level <= 3.0\nmse = 238888888.889\nsamples = 3\nvalue = 58333.333"] ;
2 -> 3 ;
4 [label="Level <= 1.5\nmse = 6250000.0\nsamples = 2\nvalue = 47500.0"] ;
3 -> 4 ;
5 [label="mse = 0.0\nsamples = 1\nvalue = 45000.0"] ;
4 -> 5 ;
6 [label="mse = 0.0\nsamples = 1\nvalue = 50000.0"] ;
4 -> 6 ;
7 [label="mse = 0.0\nsamples = 1\nvalue = 80000.0"] ;
3 -> 7 ;
8 [label="Level <= 5.5\nmse = 400000000.0\nsamples = 2\nvalue = 130000.0"] ;
2 -> 8 ;
9 [label="mse = 0.0\nsamples = 1\nvalue = 110000.0"] ;
8 -> 9 ;
10 [label="mse = 0.0\nsamples = 1\nvalue = 150000.0"] ;
8 -> 10 ;
11 [label="Level <= 7.5\nmse = 2500000000.0\nsamples = 2\nvalue = 250000.0"] ;
1 -> 11 ;
12 [label="mse = 0.0\nsamples = 1\nvalue = 200000.0"] ;
11 -> 12 ;
13 [label="mse = 0.0\nsamples = 1\nvalue = 300000.0"] ;
11 -> 13 ;
14 [label="mse = 0.0\nsamples = 1\nvalue = 1000000.0"] ;
0 -> 14 [labeldistance=2.5, labelangle=-45, headlabel="False"] ;
}